{"ip":0,"fr":60,"v":"5.1.20","assets":[],"layers":[{"ty":4,"nm":"7","ip":0,"st":0,"ind":6,"hix":1,"ks":{"o":{"a":0,"k":100},"or":{"a":0,"k":[0,0,0]},"a":{"a":0,"k":[187.5,187.4999955,0]},"p":{"s":true,"x":{"a":1,"k":[{"t":0,"s":[587.5],"e":[587.5],"i":{"x":[1],"y":[1]},"o":{"x":[0],"y":[0]}},{"t":75,"s":[587.5],"e":[275],"i":{"x":[0.515],"y":[0.955]},"o":{"x":[0.455],"y":[0.03]}},{"t":90}]},"y":{"a":1,"k":[{"t":0,"s":[-4],"e":[-4],"i":{"x":[1],"y":[1]},"o":{"x":[0],"y":[0]}},{"t":60,"s":[-4],"e":[200],"i":{"x":[0.515],"y":[0.955]},"o":{"x":[0.455],"y":[0.03]}},{"t":90}]}},"rx":{"a":0,"k":0},"ry":{"a":0,"k":0},"rz":{"a":0,"k":0},"s":{"a":0,"k":[100,100,100]}},"shapes":[{"ty":"gr","nm":"7 shape group","it":[{"ty":"sh","ks":{"a":0,"k":{"c":true,"v":[[263.328125,202.425781],[263.328125,247.066406],[227.601562,247.066406],[174.078125,273.929688],[174.078125,228.957031],[226.671875,202.425781]],"i":[[0,0],[0,0],[0,0],[0,0],[0,0],[-40.308594,0]],"o":[[0,0],[0,0],[-41.007812,0],[0,0],[0,0],[0,0]]}}},{"ty":"sh","ks":{"a":0,"k":{"c":true,"v":[[263.328125,202.425781]],"i":[[0,0]],"o":[[0,0]]}}},{"ty":"sh","ks":{"a":0,"k":{"c":true}}},{"ty":"st","o":{"a":0,"k":0},"w":{"a":0,"k":0},"c":{"a":0,"k":[0,0,0,0]},"lc":3,"lj":1,"ml":1},{"ty":"fl","o":{"a":0,"k":100},"r":1,"c":{"a":0,"k":[0.2196078431372549,0.7137254901960784,1,1]}},{"ty":"tr","o":{"a":0,"k":100},"a":{"a":0,"k":[0,0]},"s":{"a":0,"k":[100,100]},"p":{"a":0,"k":[0,0]},"r":{"a":0,"k":0}}]}],"op":90},{"ty":4,"nm":"6","ip":0,"st":0,"ind":5,"hix":2,"ks":{"o":{"a":0,"k":100},"or":{"a":0,"k":[0,0,0]},"a":{"a":0,"k":[187.5,187.4999955,0]},"p":{"s":true,"x":{"a":1,"k":[{"t":0,"s":[587],"e":[587],"i":{"x":[1],"y":[1]},"o":{"x":[0],"y":[0]}},{"t":60,"s":[587],"e":[275],"i":{"x":[0.515],"y":[0.955]},"o":{"x":[0.455],"y":[0.03]}},{"t":75}]},"y":{"a":1,"k":[{"t":0,"s":[-4],"e":[-4],"i":{"x":[1],"y":[1]},"o":{"x":[0],"y":[0]}},{"t":3,"s":[-4],"e":[200],"i":{"x":[0.515],"y":[0.955]},"o":{"x":[0.455],"y":[0.03]}},{"t":77}]}},"rx":{"a":0,"k":0},"ry":{"a":0,"k":0},"rz":{"a":0,"k":0},"s":{"a":0,"k":[100,100,100]}},"shapes":[{"ty":"gr","nm":"6 shape group","it":[{"ty":"sh","ks":{"a":0,"k":{"c":true,"v":[[294.695312,159.734375],[294.695312,203.746094],[226.875,203.746094],[174.210938,230.234375],[174.210938,185.894531],[227.527344,159.734375]],"i":[[0,0],[0,0],[0,0],[0,0],[0,0],[-39.234375,0]],"o":[[0,0],[0,0],[-40.347656,0],[0,0],[0,0],[0,0]]}}},{"ty":"sh","ks":{"a":0,"k":{"c":true,"v":[[294.695312,159.734375]],"i":[[0,0]],"o":[[0,0]]}}},{"ty":"sh","ks":{"a":0,"k":{"c":true}}},{"ty":"st","o":{"a":0,"k":0},"w":{"a":0,"k":0},"c":{"a":0,"k":[0,0,0,0]},"lc":3,"lj":1,"ml":1},{"ty":"fl","o":{"a":0,"k":100},"r":1,"c":{"a":0,"k":[1,0.7411764705882353,0.30196078431372547,1]}},{"ty":"tr","o":{"a":0,"k":100},"a":{"a":0,"k":[0,0]},"s":{"a":0,"k":[100,100]},"p":{"a":0,"k":[0,0]},"r":{"a":0,"k":0}}]}],"op":90},{"ty":4,"nm":"5","ip":0,"st":0,"ind":4,"hix":3,"ks":{"o":{"a":0,"k":100},"or":{"a":0,"k":[0,0,0]},"a":{"a":0,"k":[187.5,187.4999955,0]},"p":{"s":true,"x":{"a":1,"k":[{"t":0,"s":[586.5],"e":[586.5],"i":{"x":[1],"y":[1]},"o":{"x":[0],"y":[0]}},{"t":34,"s":[586.5],"e":[275],"i":{"x":[0.515],"y":[0.955]},"o":{"x":[0.455],"y":[0.03]}},{"t":60}]},"y":{"a":1,"k":[{"t":0,"s":[0],"e":[200],"i":{"x":[0.515],"y":[0.955]},"o":{"x":[0.455],"y":[0.03]}},{"t":60}]}},"rx":{"a":0,"k":0},"ry":{"a":0,"k":0},"rz":{"a":0,"k":0},"s":{"a":0,"k":[100,100,100]}},"shapes":[{"ty":"gr","nm":"5 shape group","it":[{"ty":"sh","ks":{"a":0,"k":{"c":true,"v":[[327.265625,117.292969],[327.265625,161.304688],[227.121094,161.304688],[174.640625,187.792969],[174.640625,144.203125],[234.675781,117.292969]],"i":[[0,0],[0,0],[0,0],[0,0],[0,0],[-48.933593,0]],"o":[[0,0],[0,0],[-36.851563,0],[0,0],[0,0],[0,0]]}}},{"ty":"sh","ks":{"a":0,"k":{"c":true,"v":[[327.265625,117.292969]],"i":[[0,0]],"o":[[0,0]]}}},{"ty":"sh","ks":{"a":0,"k":{"c":true}}},{"ty":"st","o":{"a":0,"k":0},"w":{"a":0,"k":0},"c":{"a":0,"k":[0,0,0,0]},"lc":3,"lj":1,"ml":1},{"ty":"fl","o":{"a":0,"k":100},"r":1,"c":{"a":0,"k":[0.2196078431372549,0.7137254901960784,1,1]}},{"ty":"tr","o":{"a":0,"k":100},"a":{"a":0,"k":[0,0]},"s":{"a":0,"k":[100,100]},"p":{"a":0,"k":[0,0]},"r":{"a":0,"k":0}}]}],"op":90},{"ty":4,"nm":"4","ip":0,"st":0,"ind":3,"hix":4,"ks":{"o":{"a":0,"k":100},"or":{"a":0,"k":[0,0,0]},"a":{"a":0,"k":[187.5,187.4999955,0]},"p":{"s":true,"x":{"a":1,"k":[{"t":0,"s":[0],"e":[275],"i":{"x":[0.515],"y":[0.955]},"o":{"x":[0.455],"y":[0.03]}},{"t":33}]},"y":{"a":1,"k":[{"t":0,"s":[600],"e":[200],"i":{"x":[0.515],"y":[0.955]},"o":{"x":[0.455],"y":[0.03]}},{"t":33}]}},"rx":{"a":0,"k":0},"ry":{"a":0,"k":0},"rz":{"a":0,"k":0},"s":{"a":0,"k":[100,100,100]}},"shapes":[{"ty":"gr","nm":"4 shape group","it":[{"ty":"sh","ks":{"a":0,"k":{"c":true,"v":[[47.574219,126.464844],[47.574219,239.039062],[47.753906,240.828125],[48.277344,242.550781],[49.125,244.136719],[50.269531,245.527344],[51.667969,246.667969],[53.257812,247.515625],[54.984375,248.039062],[56.78125,248.214844],[121.117188,248.214844],[175.691406,275.542969],[175.691406,144.097656],[113.285156,117.292969],[56.78125,117.292969],[54.984375,117.46875],[53.257812,117.988281],[51.667969,118.835938],[50.269531,119.980469],[49.125,121.367188],[48.277344,122.957031],[47.753906,124.675781]],"i":[[0,-0.6015629999999987],[0,0],[-0.12109399999999937,-0.5898439999999994],[-0.234375,-0.5546870000000013],[-0.33593799999999874,-0.5],[-0.42578100000000063,-0.4257819999999981],[-0.5039069999999981,-0.33593799999999874],[-0.5585930000000019,-0.23046899999999937],[-0.59375,-0.11718700000000126],[-0.6054689999999994,0],[0,0],[0,0],[0,0],[50.875,0],[0,0],[0.59375,-0.11718799999999874],[0.5585939999999994,-0.23046899999999937],[0.5,-0.3320319999999981],[0.42968799999999874,-0.42578100000000063],[0.33593799999999874,-0.5],[0.2304680000000019,-0.5585930000000019],[0.11718799999999874,-0.5898430000000019]],"o":[[0,0],[0,0.6015629999999987],[0.11718799999999874,0.59375],[0.2304680000000019,0.5546879999999987],[0.33593799999999874,0.5],[0.42968799999999874,0.42578100000000063],[0.5,0.33593700000000126],[0.5585939999999994,0.23046899999999937],[0.59375,0.11718799999999874],[0,0],[41.828124,0],[0,0],[0,0],[0,0],[-0.6054689999999994,0],[-0.59375,0.11718799999999874],[-0.5585930000000019,0.23046899999999937],[-0.5039069999999981,0.33593700000000126],[-0.42578100000000063,0.42578100000000063],[-0.33593799999999874,0.5039060000000006],[-0.234375,0.5546879999999987],[-0.12109399999999937,0.5898439999999994]]}}},{"ty":"sh","ks":{"a":0,"k":{"c":true,"v":[[47.574219,126.464844]],"i":[[0,0]],"o":[[0,0]]}}},{"ty":"sh","ks":{"a":0,"k":{"c":true}}},{"ty":"st","o":{"a":0,"k":0},"w":{"a":0,"k":0},"c":{"a":0,"k":[0,0,0,0]},"lc":3,"lj":1,"ml":1},{"ty":"fl","o":{"a":0,"k":100},"r":1,"c":{"a":0,"k":[0.9098039215686274,0.9098039215686274,0.9098039215686274,1]}},{"ty":"tr","o":{"a":0,"k":100},"a":{"a":0,"k":[0,0]},"s":{"a":0,"k":[100,100]},"p":{"a":0,"k":[0,0]},"r":{"a":0,"k":0}}]}],"op":90},{"ty":4,"nm":"3","ip":0,"st":0,"ind":2,"hix":5,"ks":{"o":{"a":0,"k":100},"or":{"a":0,"k":[0,0,0]},"a":{"a":0,"k":[187.5,187.4999955,0]},"p":{"s":true,"x":{"a":1,"k":[{"t":0,"s":[650],"e":[275],"i":{"x":[0.515],"y":[0.955]},"o":{"x":[0.455],"y":[0.03]}},{"t":90}]},"y":{"a":1,"k":[{"t":0,"s":[400],"e":[200],"i":{"x":[0.515],"y":[0.955]},"o":{"x":[0.455],"y":[0.03]}},{"t":90}]}},"rx":{"a":0,"k":0},"ry":{"a":0,"k":0},"rz":{"a":0,"k":0},"s":{"a":0,"k":[100,100,100]}},"shapes":[{"ty":"gr","nm":"3 shape group","it":[{"ty":"sh","ks":{"a":0,"k":{"c":true,"v":[[328.304688,117.292969],[47.765625,246.59375],[174.222656,373.105469],[300.871094,373.105469],[304.476562,373.019531],[308.070312,372.753906],[311.648438,372.3125],[315.199219,371.695312],[318.714844,370.902344],[322.191406,369.941406],[325.613281,368.808594],[328.976562,367.507812],[332.269531,366.046875],[335.488281,364.425781],[338.625,362.644531],[341.667969,360.714844],[344.613281,358.636719],[347.453125,356.417969],[350.183594,354.058594],[352.792969,351.570312],[355.277344,348.957031],[357.628906,346.226562],[359.84375,343.378906],[361.917969,340.429688],[363.84375,337.382812],[365.617188,334.242188],[367.234375,331.019531],[368.691406,327.722656],[369.984375,324.355469],[371.113281,320.929688],[372.070312,317.453125],[372.855469,313.933594],[373.46875,310.382812],[373.90625,306.800781],[374.164062,303.203125],[374.25,299.597656],[374.25,163.355469]],"i":[[0,0],[0,0],[0,0],[0,0],[-1.2031240000000025,0.05859400000002779],[-1.1953120000000013,0.11718800000005558],[-1.1914070000000265,0.1757809999999722],[-1.1796880000000556,0.23437599999999748],[-1.1640630000000556,0.29296799999997347],[-1.152343999999971,0.34765600000002905],[-1.1328119999999444,0.40625],[-1.113281000000029,0.46093799999999874],[-1.0859369999999444,0.515625],[-1.0585929999999735,0.5664070000000265],[-1.03125,0.6210940000000278],[-1,0.6679679999999735],[-0.9648429999999735,0.7148429999999735],[-0.9257809999999722,0.761718999999971],[-0.890625,0.808593999999971],[-0.8515630000000556,0.8515629999999987],[-0.8085940000000278,0.890625],[-0.7617179999999735,0.9296879999999987],[-0.7148440000000278,0.96875],[-0.6679690000000278,1],[-0.6171879999999987,1.03125],[-0.5664070000000265,1.0625],[-0.5117190000000278,1.0898440000000278],[-0.4570309999999722,1.109375],[-0.4023440000000278,1.1328119999999444],[-0.3476559999999722,1.1523429999999735],[-0.29296799999997347,1.1679690000000278],[-0.234375,1.1796869999999444],[-0.1757809999999722,1.1875],[-0.11718799999999874,1.1992190000000278],[-0.05468700000000126,1.203125],[0,1.203125],[0,0]],"o":[[0,0],[0,0],[0,0],[1.203125,0],[1.199218999999971,-0.0625],[1.1953129999999987,-0.12109399999997095],[1.1875,-0.17968799999999874],[1.1796869999999444,-0.23828100000002905],[1.1679679999999735,-0.2929690000000278],[1.1484380000000556,-0.3515619999999444],[1.1289070000000265,-0.40625],[1.1093759999999975,-0.46093700000000126],[1.0859380000000556,-0.515625],[1.0585940000000278,-0.5703119999999444],[1.03125,-0.6171869999999444],[1,-0.6679690000000278],[0.9648440000000278,-0.71875],[0.9296870000000013,-0.765625],[0.890625,-0.8085940000000278],[0.8476559999999722,-0.8515620000000013],[0.8046869999999444,-0.890625],[0.7617190000000278,-0.9296870000000013],[0.7148440000000278,-0.964843999999971],[0.6640619999999444,-1],[0.6171879999999987,-1.03125],[0.566406000000029,-1.058593999999971],[0.5117190000000278,-1.0859369999999444],[0.45703200000002653,-1.1132809999999722],[0.40625,-1.1328130000000556],[0.34765700000002653,-1.1484379999999987],[0.28906299999999874,-1.1640629999999987],[0.234375,-1.1796880000000556],[0.1757809999999722,-1.191406000000029],[0.11328099999997221,-1.1953119999999444],[0.05859399999997095,-1.1992190000000278],[0,0],[0,0]]}}},{"ty":"sh","ks":{"a":0,"k":{"c":true,"v":[[328.304688,117.292969]],"i":[[0,0]],"o":[[0,0]]}}},{"ty":"sh","ks":{"a":0,"k":{"c":true}}},{"ty":"st","o":{"a":0,"k":0},"w":{"a":0,"k":0},"c":{"a":0,"k":[0,0,0,0]},"lc":3,"lj":1,"ml":1},{"ty":"fl","o":{"a":0,"k":100},"r":1,"c":{"a":0,"k":[0.32941176470588235,0.32941176470588235,0.32941176470588235,1]}},{"ty":"tr","o":{"a":0,"k":100},"a":{"a":0,"k":[0,0]},"s":{"a":0,"k":[100,100]},"p":{"a":0,"k":[0,0]},"r":{"a":0,"k":0}}]}],"op":90},{"ty":4,"nm":"2","ip":0,"st":0,"ind":1,"hix":6,"ks":{"o":{"a":0,"k":100},"or":{"a":0,"k":[0,0,0]},"a":{"a":0,"k":[187.5,187.4999955,0]},"p":{"s":true,"x":{"a":1,"k":[{"t":0,"s":[-200],"e":[275],"i":{"x":[0.515],"y":[0.955]},"o":{"x":[0.455],"y":[0.03]}},{"t":60}]},"y":{"a":0,"k":200}},"rx":{"a":0,"k":0},"ry":{"a":0,"k":0},"rz":{"a":0,"k":0},"s":{"a":0,"k":[100,100,100]}},"shapes":[{"ty":"gr","nm":"2 shape group","it":[{"ty":"sh","ks":{"a":0,"k":{"c":true,"v":[[74.605469,0],[300.394531,0],[304.054688,0.0898438],[307.707031,0.359375],[311.339844,0.808594],[314.949219,1.433594],[318.523438,2.234375],[322.050781,3.210938],[325.527344,4.359375],[328.945312,5.679688],[332.292969,7.164062],[335.5625,8.808594],[338.75,10.613281],[341.84375,12.574219],[344.835938,14.683594],[347.722656,16.933594],[350.496094,19.328125],[353.148438,21.851562],[355.671875,24.503906],[358.066406,27.277344],[360.316406,30.164062],[362.425781,33.15625],[364.386719,36.25],[366.191406,39.4375],[367.835938,42.707031],[369.320312,46.054688],[370.640625,49.472656],[371.789062,52.949219],[372.765625,56.476562],[373.566406,60.050781],[374.191406,63.660156],[374.640625,67.292969],[374.910156,70.945312],[375,74.605469],[375,300.394531],[374.910156,304.054688],[374.640625,307.707031],[374.191406,311.339844],[373.566406,314.949219],[372.765625,318.523438],[371.789062,322.050781],[370.640625,325.527344],[369.320312,328.945312],[367.835938,332.292969],[366.191406,335.5625],[364.386719,338.75],[362.425781,341.84375],[360.316406,344.835938],[358.066406,347.722656],[355.671875,350.496094],[353.148438,353.148438],[350.496094,355.671875],[347.722656,358.066406],[344.835938,360.316406],[341.84375,362.425781],[338.75,364.386719],[335.5625,366.191406],[332.292969,367.835938],[328.945312,369.320312],[325.527344,370.640625],[322.050781,371.789062],[318.523438,372.765625],[314.949219,373.566406],[311.339844,374.191406],[307.707031,374.640625],[304.054688,374.910156],[300.394531,375],[74.605469,375],[70.945312,374.910156],[67.292969,374.640625],[63.660156,374.191406],[60.050781,373.566406],[56.476562,372.765625],[52.949219,371.789062],[49.472656,370.640625],[46.054688,369.320312],[42.707031,367.835938],[39.4375,366.191406],[36.25,364.386719],[33.15625,362.425781],[30.164062,360.316406],[27.277344,358.066406],[24.503906,355.671875],[21.851562,353.148438],[19.328125,350.496094],[16.933594,347.722656],[14.683594,344.835938],[12.574219,341.84375],[10.613281,338.75],[8.808594,335.5625],[7.164062,332.292969],[5.679688,328.945312],[4.359375,325.527344],[3.210938,322.050781],[2.234375,318.523438],[1.433594,314.949219],[0.808594,311.339844],[0.359375,307.707031],[0.0898438,304.054688],[0,300.394531],[0,74.605469],[0.0898438,70.945312],[0.359375,67.292969],[0.808594,63.660156],[1.433594,60.050781],[2.234375,56.476562],[3.210938,52.949219],[4.359375,49.472656],[5.679688,46.054688],[7.164062,42.707031],[8.808594,39.4375],[10.613281,36.25],[12.574219,33.15625],[14.683594,30.164062],[16.933594,27.277344],[19.328125,24.503906],[21.851562,21.851562],[24.503906,19.328125],[27.277344,16.933594],[30.164062,14.683594],[33.15625,12.574219],[36.25,10.613281],[39.4375,8.808594],[42.707031,7.164062],[46.054688,5.679688],[49.472656,4.359375],[52.949219,3.210938],[56.476562,2.234375],[60.050781,1.433594],[63.660156,0.808594],[67.292969,0.359375],[70.945312,0.0898438]],"i":[[-1.222656999999998,0],[0,0],[-1.21875,-0.0585938],[-1.2148429999999735,-0.12109400000000001],[-1.2070320000000265,-0.17968800000000007],[-1.1953130000000556,-0.2382820000000001],[-1.183593999999971,-0.296875],[-1.167968999999971,-0.35156300000000007],[-1.1484380000000556,-0.4101560000000002],[-1.128906000000029,-0.46875],[-1.1054690000000278,-0.5234370000000004],[-1.0742190000000278,-0.5742189999999994],[-1.046875,-0.625],[-1.015625,-0.6796879999999987],[-0.980468999999971,-0.7304689999999994],[-0.9414059999999722,-0.7734379999999987],[-0.9023440000000278,-0.8203129999999987],[-0.8632820000000265,-0.8632810000000006],[-0.8164059999999722,-0.90625],[-0.777343999999971,-0.9453129999999987],[-0.7265619999999444,-0.9804680000000019],[-0.6757809999999722,-1.015625],[-0.6289070000000265,-1.046875],[-0.578125,-1.078125],[-0.5195320000000265,-1.1015620000000013],[-0.46484299999997347,-1.128906999999998],[-0.41406299999999874,-1.1523439999999994],[-0.35546799999997347,-1.1679689999999994],[-0.296875,-1.183593000000002],[-0.2382809999999722,-1.1992189999999994],[-0.17968699999994442,-1.2109370000000013],[-0.12109400000002779,-1.2148439999999994],[-0.05859399999997095,-1.21875],[0,-1.222656999999998],[0,0],[0.05859400000002779,-1.21875],[0.12109400000002779,-1.2148429999999735],[0.17968800000005558,-1.2070320000000265],[0.23828200000002653,-1.1953130000000556],[0.296875,-1.183593999999971],[0.35156299999999874,-1.167968999999971],[0.4101559999999722,-1.1484380000000556],[0.46875,-1.128906000000029],[0.5234370000000013,-1.1054690000000278],[0.5742190000000278,-1.0742190000000278],[0.625,-1.046875],[0.6796880000000556,-1.015625],[0.7304690000000278,-0.980468999999971],[0.7734380000000556,-0.9414059999999722],[0.8203129999999987,-0.9023440000000278],[0.863281000000029,-0.8632820000000265],[0.90625,-0.8164059999999722],[0.9453130000000556,-0.777343999999971],[0.9804679999999735,-0.7265619999999444],[1.015625,-0.6757809999999722],[1.046875,-0.6289070000000265],[1.078125,-0.578125],[1.1015619999999444,-0.5195320000000265],[1.1289070000000265,-0.46484299999997347],[1.152343999999971,-0.41406299999999874],[1.1679690000000278,-0.35546799999997347],[1.1835929999999735,-0.296875],[1.199218999999971,-0.2382809999999722],[1.2109369999999444,-0.17968699999994442],[1.2148440000000278,-0.12109400000002779],[1.21875,-0.05859399999997095],[1.2226570000000265,0],[0,0],[1.21875,0.05859400000002779],[1.214843000000002,0.12109400000002779],[1.207031999999998,0.17968800000005558],[1.1953129999999987,0.23828200000002653],[1.1835939999999994,0.296875],[1.1679689999999994,0.35156299999999874],[1.1484379999999987,0.4101559999999722],[1.1289060000000006,0.46875],[1.1054689999999994,0.5234370000000013],[1.0742189999999994,0.5742190000000278],[1.046875,0.625],[1.015625,0.6796880000000556],[0.9804689999999994,0.7304690000000278],[0.9414060000000006,0.7734380000000556],[0.9023439999999994,0.8203129999999987],[0.8632819999999981,0.863281000000029],[0.8164060000000006,0.90625],[0.7773439999999994,0.9453130000000556],[0.7265620000000013,0.9804679999999735],[0.6757810000000006,1.015625],[0.6289069999999999,1.046875],[0.578125,1.078125],[0.5195319999999999,1.1015619999999444],[0.4648430000000001,1.1289070000000265],[0.4140629999999996,1.152343999999971],[0.3554680000000001,1.1679690000000278],[0.296875,1.1835929999999735],[0.23828099999999997,1.199218999999971],[0.17968699999999993,1.2109369999999444],[0.12109399999999998,1.2148440000000278],[0.058594199999999985,1.21875],[0,1.2226570000000265],[0,0],[-0.0585938,1.21875],[-0.12109400000000001,1.214843000000002],[-0.17968800000000007,1.207031999999998],[-0.2382820000000001,1.1953129999999987],[-0.296875,1.1835939999999994],[-0.35156300000000007,1.1679689999999994],[-0.4101560000000002,1.1484379999999987],[-0.46875,1.1289060000000006],[-0.5234370000000004,1.1054689999999994],[-0.5742189999999994,1.0742189999999994],[-0.625,1.046875],[-0.6796879999999987,1.015625],[-0.7304689999999994,0.9804689999999994],[-0.7734379999999987,0.9414060000000006],[-0.8203129999999987,0.9023439999999994],[-0.8632810000000006,0.8632819999999981],[-0.90625,0.8164060000000006],[-0.9453129999999987,0.7773439999999994],[-0.9804680000000019,0.7265620000000013],[-1.015625,0.6757810000000006],[-1.046875,0.6289069999999999],[-1.078125,0.578125],[-1.1015620000000013,0.5195319999999999],[-1.128906999999998,0.4648430000000001],[-1.1523439999999994,0.4140629999999996],[-1.1679689999999994,0.3554680000000001],[-1.183593000000002,0.296875],[-1.1992189999999994,0.23828099999999997],[-1.2109370000000013,0.17968699999999993],[-1.2148439999999994,0.12109399999999998],[-1.21875,0.058594199999999985]],"o":[[0,0],[1.2226570000000265,0],[1.21875,0.058594199999999985],[1.2148440000000278,0.12109399999999998],[1.2109369999999444,0.17968699999999993],[1.199218999999971,0.23828099999999997],[1.1835929999999735,0.296875],[1.1679690000000278,0.3554680000000001],[1.152343999999971,0.4140629999999996],[1.1289070000000265,0.4648430000000001],[1.1015619999999444,0.5195319999999999],[1.078125,0.578125],[1.046875,0.6289069999999999],[1.015625,0.6757810000000006],[0.9804679999999735,0.7265620000000013],[0.9453130000000556,0.7773439999999994],[0.90625,0.8164060000000006],[0.863281000000029,0.8632819999999981],[0.8203129999999987,0.9023439999999994],[0.7734380000000556,0.9414060000000006],[0.7304690000000278,0.9804689999999994],[0.6796880000000556,1.015625],[0.625,1.046875],[0.5742190000000278,1.0742189999999994],[0.5234370000000013,1.1054689999999994],[0.46875,1.1289060000000006],[0.4101559999999722,1.1484379999999987],[0.35156299999999874,1.1679689999999994],[0.296875,1.1835939999999994],[0.23828200000002653,1.1953129999999987],[0.17968800000005558,1.207031999999998],[0.12109400000002779,1.214843000000002],[0.05859400000002779,1.21875],[0,0],[0,1.2226570000000265],[-0.05859399999997095,1.21875],[-0.12109400000002779,1.2148440000000278],[-0.17968699999994442,1.2109369999999444],[-0.2382809999999722,1.199218999999971],[-0.296875,1.1835929999999735],[-0.35546799999997347,1.1679690000000278],[-0.41406299999999874,1.152343999999971],[-0.46484299999997347,1.1289070000000265],[-0.5195320000000265,1.1015619999999444],[-0.578125,1.078125],[-0.6289070000000265,1.046875],[-0.6757809999999722,1.015625],[-0.7265619999999444,0.9804679999999735],[-0.777343999999971,0.9453130000000556],[-0.8164059999999722,0.90625],[-0.8632820000000265,0.863281000000029],[-0.9023440000000278,0.8203129999999987],[-0.9414059999999722,0.7734380000000556],[-0.980468999999971,0.7304690000000278],[-1.015625,0.6796880000000556],[-1.046875,0.625],[-1.0742190000000278,0.5742190000000278],[-1.1054690000000278,0.5234370000000013],[-1.128906000000029,0.46875],[-1.1484380000000556,0.4101559999999722],[-1.167968999999971,0.35156299999999874],[-1.183593999999971,0.296875],[-1.1953130000000556,0.23828200000002653],[-1.2070320000000265,0.17968800000005558],[-1.2148429999999735,0.12109400000002779],[-1.21875,0.05859400000002779],[0,0],[-1.222656999999998,0],[-1.21875,-0.05859399999997095],[-1.2148439999999994,-0.12109400000002779],[-1.2109370000000013,-0.17968699999994442],[-1.1992189999999994,-0.2382809999999722],[-1.183593000000002,-0.296875],[-1.1679689999999994,-0.35546799999997347],[-1.1523439999999994,-0.41406299999999874],[-1.128906999999998,-0.46484299999997347],[-1.1015620000000013,-0.5195320000000265],[-1.078125,-0.578125],[-1.046875,-0.6289070000000265],[-1.015625,-0.6757809999999722],[-0.9804680000000019,-0.7265619999999444],[-0.9453129999999987,-0.777343999999971],[-0.90625,-0.8164059999999722],[-0.8632810000000006,-0.8632820000000265],[-0.8203129999999987,-0.9023440000000278],[-0.7734379999999987,-0.9414059999999722],[-0.7304689999999994,-0.980468999999971],[-0.6796879999999987,-1.015625],[-0.625,-1.046875],[-0.5742189999999994,-1.0742190000000278],[-0.5234370000000004,-1.1054690000000278],[-0.46875,-1.128906000000029],[-0.4101560000000002,-1.1484380000000556],[-0.35156300000000007,-1.167968999999971],[-0.296875,-1.183593999999971],[-0.2382820000000001,-1.1953130000000556],[-0.17968800000000007,-1.2070320000000265],[-0.12109400000000001,-1.2148429999999735],[-0.0585938,-1.21875],[0,0],[0,-1.222656999999998],[0.058594199999999985,-1.21875],[0.12109399999999998,-1.2148439999999994],[0.17968699999999993,-1.2109370000000013],[0.23828099999999997,-1.1992189999999994],[0.296875,-1.183593000000002],[0.3554680000000001,-1.1679689999999994],[0.4140629999999996,-1.1523439999999994],[0.4648430000000001,-1.128906999999998],[0.5195319999999999,-1.1015620000000013],[0.578125,-1.078125],[0.6289069999999999,-1.046875],[0.6757810000000006,-1.015625],[0.7265620000000013,-0.9804680000000019],[0.7773439999999994,-0.9453129999999987],[0.8164060000000006,-0.90625],[0.8632819999999981,-0.8632810000000006],[0.9023439999999994,-0.8203129999999987],[0.9414060000000006,-0.7734379999999987],[0.9804689999999994,-0.7304689999999994],[1.015625,-0.6796879999999987],[1.046875,-0.625],[1.0742189999999994,-0.5742189999999994],[1.1054689999999994,-0.5234370000000004],[1.1289060000000006,-0.46875],[1.1484379999999987,-0.4101560000000002],[1.1679689999999994,-0.35156300000000007],[1.1835939999999994,-0.296875],[1.1953129999999987,-0.2382820000000001],[1.207031999999998,-0.17968800000000007],[1.214843000000002,-0.12109400000000001],[1.21875,-0.0585938]]}}},{"ty":"sh","ks":{"a":0,"k":{"c":true,"v":[[74.605469,0]],"i":[[0,0]],"o":[[0,0]]}}},{"ty":"sh","ks":{"a":0,"k":{"c":true}}},{"ty":"st","o":{"a":0,"k":0},"w":{"a":0,"k":0},"c":{"a":0,"k":[0,0,0,0]},"lc":3,"lj":1,"ml":1},{"ty":"fl","o":{"a":0,"k":100},"r":1,"c":{"a":0,"k":[0.6509803921568628,0.6509803921568628,0.6509803921568628,1]}},{"ty":"tr","o":{"a":0,"k":100},"a":{"a":0,"k":[0,0]},"s":{"a":0,"k":[100,100]},"p":{"a":0,"k":[0,0]},"r":{"a":0,"k":0}}]}],"op":90}],"op":90,"w":550,"h":400}